{
  "network_weights": [
    -0.27373976,
    -0.15558037,
    0.41491717,
    -0.3984856,
    -0.9825327,
    0.030589066,
    -0.26351205,
    -0.29185215,
    0.15200545,
    0.116578035,
    0.21450417,
    0.13257433,
    0.47363245,
    -0.22545223,
    -0.13310243,
    0.09804596,
    0.38719532,
    -0.13686185,
    -0.3433404,
    0.5162065,
    0.0409816,
    -0.15147139,
    0.56079364,
    -0.5326901,
    -0.34072387,
    0.37296465,
    -0.5747398,
    -0.49379408,
    -0.7327471,
    -0.24038546,
    -0.22533153,
    0.44925967,
    -0.3148811,
    0.6371184,
    -0.012402549,
    -0.4895197,
    -0.06873992,
    0.029379405,
    -0.38459504,
    -0.016211674,
    -0.66706365,
    -0.4319904,
    0.58404434,
    0.575658,
    0.35307735,
    -0.14348273,
    -0.40405887,
    0.5716622,
    -0.37779108,
    0.38832346,
    -0.55271304,
    -0.68409973,
    0.41859138,
    0.5618158,
    0.2890798,
    0.26621073,
    0.28948328,
    -0.47581506,
    -0.50739247,
    0.44665247,
    -0.30752885,
    0.097105324,
    0.21531379,
    -0.04598795,
    -0.008809835,
    -0.4054423,
    -0.1243415,
    0.41682622,
    -0.24550922,
    -0.07158234,
    0.07536869,
    0.39850786,
    0.20331252,
    0.47578555,
    0.2950192,
    0.13062891,
    0.51823354,
    -0.5536528,
    0.2576785,
    0.08268285,
    0.22423732,
    -0.2002337,
    -0.14623633,
    -0.2537593,
    0.3597586,
    0.08158271,
    0.2208716,
    0.31874472,
    -0.14190847,
    -0.11007625,
    0.18091656,
    0.05267653,
    -0.47549272,
    -0.015798837,
    -0.7134702,
    0.40803996,
    0.12805156,
    -0.13491662,
    0.2925628,
    -0.46776336,
    0.08941895,
    -0.014299095,
    -0.35060847,
    -0.1635187,
    -0.53987944,
    0.3954087,
    -0.11857611,
    -0.6789925,
    -0.37665054,
    0.1573625,
    0.17215756,
    -0.39696705,
    -0.38471296,
    0.031173214,
    -0.1983452,
    0.40302217,
    -0.28265935,
    0.03197795,
    0.14585322,
    -0.029960543,
    0.05595251,
    0.12941211,
    0.18620872,
    0.15639496,
    0.13242793,
    -0.0685747,
    0.85757333,
    0.098476864,
    0.031118706,
    0.02730351,
    -0.14978066,
    -0.072140545,
    -0.23179267,
    0.5096616,
    -0.035165295,
    0.14551628,
    -0.12574199,
    0.04959105,
    -0.5514704,
    0.1550959,
    -0.09136307,
    0.2773897,
    -0.0986321,
    -0.3553943,
    0.35275954,
    0.13291305,
    -0.025253877,
    0.046016216,
    -0.42394865,
    0.47653365,
    -0.05239468,
    0.15829764,
    -0.32976055,
    -0.17763108,
    -0.41975436,
    -0.50599486,
    0.0816038,
    -0.050683342
  ],
  "max_speed": 197.11644,
  "max_force": 145.78534,
  "perception_radius": 76.22273
}