{
  "network_weights": [
    -0.92241025,
    -0.17979527,
    0.04781854,
    -0.080571555,
    -0.23250829,
    -0.881118,
    0.13429573,
    -0.33402205,
    0.05021587,
    0.16346961,
    0.5265813,
    0.04479246,
    0.54225284,
    -0.07859758,
    0.56092834,
    0.37208542,
    -0.07602526,
    0.024564788,
    -0.062808834,
    -0.55974764,
    -0.61074203,
    0.28865728,
    -0.34765264,
    -0.30201644,
    0.618588,
    -0.2556473,
    -0.17914365,
    -0.37269652,
    -0.7439005,
    0.24277197,
    -0.22158489,
    -0.17410389,
    0.26396698,
    -0.37400633,
    -0.0031855106,
    0.51716554,
    0.61241144,
    0.44907925,
    0.87115926,
    -0.6657416,
    0.40029007,
    -0.7164804,
    0.24710801,
    -0.09336211,
    0.6157711,
    0.0022925436,
    0.35968095,
    -0.0452205,
    0.145747,
    0.13315758,
    -0.15208396,
    -0.11056113,
    0.14553943,
    -0.24900278,
    0.20935735,
    -0.40051234,
    -0.25305223,
    0.15712935,
    -0.14803386,
    0.6420912,
    -0.55772305,
    -0.46727246,
    -0.15827526,
    -0.38846874,
    -0.07419883,
    0.35991657,
    -0.08962658,
    0.3782711,
    -0.8904868,
    0.41246724,
    -0.005789757,
    0.36474138,
    -0.30241898,
    0.018967777,
    0.08756399,
    0.1556313,
    0.04001572,
    0.24808681,
    0.7269882,
    -0.03339328,
    0.42264307,
    -0.69770944,
    0.41134694,
    0.6330155,
    -0.27792734,
    -0.21927047,
    0.11575721,
    -0.15372258,
    0.19483408,
    -0.0065125525,
    -0.08751106,
    -0.23035504,
    -0.06239435,
    0.07807862,
    -0.23316741,
    0.51295304,
    0.40993232,
    0.40956518,
    0.36173743,
    -0.31106335,
    -0.19466695,
    -0.029029518,
    -0.4606616,
    0.2371729,
    -0.7864436,
    -0.35162708,
    0.07316059,
    -0.24610731,
    -0.18931349,
    -0.098678246,
    0.2740373,
    -0.26917696,
    -0.4958439,
    -0.093894646,
    -0.05946201,
    -0.1997857,
    -0.36907753,
    -0.17512712,
    0.33113158,
    -0.094672844,
    0.06810509,
    -0.3948968,
    -0.10338816,
    -0.5331681,
    0.30885926,
    -0.092987716,
    0.50178623,
    -0.04901982,
    0.3989714,
    0.5325179,
    -0.3093381,
    0.22223447,
    -0.081414744,
    0.3953752,
    -0.19710419,
    0.6114475,
    0.17246997,
    0.014403969,
    -0.51699895,
    0.054056063,
    -0.15125105,
    0.4458338,
    -0.66019845,
    0.5353917,
    -0.1268556,
    0.3707204,
    -0.40187117,
    0.46341413,
    0.27886647,
    0.17521934,
    0.15406805,
    0.35305542,
    0.19482857,
    -0.41897574,
    0.25314862,
    0.20652644,
    -0.12356955,
    -0.09747763
  ],
  "max_speed": 129.26894,
  "max_force": 409.16083,
  "perception_radius": 124.35358
}